<?xml version="1.0"?>
<opencv_storage>
<cascade>
  <stageType>BOOST</stageType>
  <featureType>HAAR</featureType>
  <height>24</height>
  <width>24</width>
  <stageParams>
    <boostType>GAB</boostType>
    <minHitRate>9.9500000476837158e-01</minHitRate>
    <maxFalseAlarm>5.0000000000000000e-01</maxFalseAlarm>
    <weightTrimRate>9.4999999999999996e-01</weightTrimRate>
    <maxDepth>1</maxDepth>
    <maxWeakCount>100</maxWeakCount></stageParams>
  <featureParams>
    <maxCatCount>0</maxCatCount>
    <featSize>1</featSize>
    <mode>BASIC</mode></featureParams>
  <stageNum>7</stageNum>
  <stages>
    <!-- stage 0 -->
    <_>
      <maxWeakCount>4</maxWeakCount>
      <stageThreshold>-5.3018951416015625e-01</stageThreshold>
      <weakClassifiers>
        <_>
          <internalNodes>
            0 -1 8 -1.2717723846435547e-01</internalNodes>
          <leafValues>
            -5.7281553745269775e-01 8.0710661411285400e-01</leafValues></_>
        <_>
          <internalNodes>
            0 -1 5 -2.0997345447540283e-02</internalNodes>
          <leafValues>
            8.8310199975967407e-01 -4.9945992231369019e-01</leafValues></_>
        <_>
          <internalNodes>
            0 -1 2 -2.1802486851811409e-02</internalNodes>
          <leafValues>
            9.3417865037918091e-01 -3.0946937203407288e-01</leafValues></_>
        <_>
          <internalNodes>
            0 -1 30 3.0484199523925781e-03</internalNodes>
          <leafValues>
            -3.5298442840576172e-01 8.5155534744262695e-01</leafValues></_></weakClassifiers></_>
    <!-- stage 1 -->
    <_>
      <maxWeakCount>4</maxWeakCount>
      <stageThreshold>1.6217425465583801e-01</stageThreshold>
      <weakClassifiers>
        <_>
          <internalNodes>
            0 -1 13 -4.4239897280931473e-02</internalNodes>
          <leafValues>
            -9.0163934230804443e-01 6.4853554964065552e-01</leafValues></_>
        <_>
          <internalNodes>
            0 -1 1 -1.5624634921550751e-02</internalNodes>
          <leafValues>
            8.1609743833541870e-01 -6.6063868999481201e-01</leafValues></_>
        <_>
          <internalNodes>
            0 -1 20 -1.3749556615948677e-02</internalNodes>
          <leafValues>
            7.8795588016510010e-01 -5.9322661161422729e-01</leafValues></_>
        <_>
          <internalNodes>
            0 -1 18 -3.0277208425104618e-03</internalNodes>
          <leafValues>
            8.4094274044036865e-01 -4.0523493289947510e-01</leafValues></_></weakClassifiers></_>
    <!-- stage 2 -->
    <_>
      <maxWeakCount>2</maxWeakCount>
      <stageThreshold>7.3765166103839874e-02</stageThreshold>
      <weakClassifiers>
        <_>
          <internalNodes>
            0 -1 0 -4.9530349671840668e-02</internalNodes>
          <leafValues>
            -8.3561640977859497e-01 7.0925110578536987e-01</leafValues></_>
        <_>
          <internalNodes>
            0 -1 9 -4.9710823222994804e-03</internalNodes>
          <leafValues>
            9.0938162803649902e-01 -5.4627132415771484e-01</leafValues></_></weakClassifiers></_>
    <!-- stage 3 -->
    <_>
      <maxWeakCount>6</maxWeakCount>
      <stageThreshold>2.7829194068908691e-01</stageThreshold>
      <weakClassifiers>
        <_>
          <internalNodes>
            0 -1 10 -9.6906963735818863e-03</internalNodes>
          <leafValues>
            7.3076921701431274e-01 -5.6521737575531006e-01</leafValues></_>
        <_>
          <internalNodes>
            0 -1 32 -1.9318293780088425e-02</internalNodes>
          <leafValues>
            -8.5336965322494507e-01 4.5271235704421997e-01</leafValues></_>
        <_>
          <internalNodes>
            0 -1 6 -1.8199665937572718e-03</internalNodes>
          <leafValues>
            7.3851752281188965e-01 -5.1156485080718994e-01</leafValues></_>
        <_>
          <internalNodes>
            0 -1 28 8.5820173844695091e-03</internalNodes>
          <leafValues>
            -3.5352173447608948e-01 9.2271095514297485e-01</leafValues></_>
        <_>
          <internalNodes>
            0 -1 31 5.2347400924190879e-04</internalNodes>
          <leafValues>
            3.9286077022552490e-01 -8.7061655521392822e-01</leafValues></_>
        <_>
          <internalNodes>
            0 -1 22 -1.7036814242601395e-03</internalNodes>
          <leafValues>
            9.3358457088470459e-01 -3.7696424126625061e-01</leafValues></_></weakClassifiers></_>
    <!-- stage 4 -->
    <_>
      <maxWeakCount>4</maxWeakCount>
      <stageThreshold>-1.7997315526008606e-01</stageThreshold>
      <weakClassifiers>
        <_>
          <internalNodes>
            0 -1 7 -1.2163704633712769e-01</internalNodes>
          <leafValues>
            -4.7252747416496277e-01 6.8421053886413574e-01</leafValues></_>
        <_>
          <internalNodes>
            0 -1 23 -6.7359637469053268e-03</internalNodes>
          <leafValues>
            8.7335139513015747e-01 -3.2625150680541992e-01</leafValues></_>
        <_>
          <internalNodes>
            0 -1 3 2.4049554020166397e-02</internalNodes>
          <leafValues>
            -2.9112493991851807e-01 9.0812152624130249e-01</leafValues></_>
        <_>
          <internalNodes>
            0 -1 12 -8.1253759562969208e-03</internalNodes>
          <leafValues>
            9.4515508413314819e-01 -2.4680723249912262e-01</leafValues></_></weakClassifiers></_>
    <!-- stage 5 -->
    <_>
      <maxWeakCount>6</maxWeakCount>
      <stageThreshold>-5.8170509338378906e-01</stageThreshold>
      <weakClassifiers>
        <_>
          <internalNodes>
            0 -1 25 1.1124936863780022e-02</internalNodes>
          <leafValues>
            -2.7559053897857666e-01 7.8034681081771851e-01</leafValues></_>
        <_>
          <internalNodes>
            0 -1 21 -1.1629893444478512e-02</internalNodes>
          <leafValues>
            6.2323468923568726e-01 -5.2897018194198608e-01</leafValues></_>
        <_>
          <internalNodes>
            0 -1 15 -4.0813721716403961e-03</internalNodes>
          <leafValues>
            7.2496062517166138e-01 -3.5061720013618469e-01</leafValues></_>
        <_>
          <internalNodes>
            0 -1 17 -4.9693575128912926e-03</internalNodes>
          <leafValues>
            5.8455193042755127e-01 -4.0621736645698547e-01</leafValues></_>
        <_>
          <internalNodes>
            0 -1 14 -4.0218876674771309e-03</internalNodes>
          <leafValues>
            7.7717006206512451e-01 -3.3856871724128723e-01</leafValues></_>
        <_>
          <internalNodes>
            0 -1 27 -5.7461101096123457e-04</internalNodes>
          <leafValues>
            -9.2663377523422241e-01 3.2748958468437195e-01</leafValues></_></weakClassifiers></_>
    <!-- stage 6 -->
    <_>
      <maxWeakCount>7</maxWeakCount>
      <stageThreshold>-9.1046541929244995e-01</stageThreshold>
      <weakClassifiers>
        <_>
          <internalNodes>
            0 -1 19 -2.0031549036502838e-02</internalNodes>
          <leafValues>
            8.7878787517547607e-01 -9.5238097012042999e-02</leafValues></_>
        <_>
          <internalNodes>
            0 -1 4 -5.4756207391619682e-03</internalNodes>
          <leafValues>
            6.5358573198318481e-01 -2.9823362827301025e-01</leafValues></_>
        <_>
          <internalNodes>
            0 -1 16 -9.1433804482221603e-03</internalNodes>
          <leafValues>
            8.7759608030319214e-01 -2.2490608692169189e-01</leafValues></_>
        <_>
          <internalNodes>
            0 -1 24 -2.0300369942560792e-04</internalNodes>
          <leafValues>
            4.5951524376869202e-01 -4.8684281110763550e-01</leafValues></_>
        <_>
          <internalNodes>
            0 -1 11 -2.5154836475849152e-02</internalNodes>
          <leafValues>
            8.3160734176635742e-01 -2.6329863071441650e-01</leafValues></_>
        <_>
          <internalNodes>
            0 -1 26 -6.3200485892593861e-03</internalNodes>
          <leafValues>
            7.4769139289855957e-01 -2.7642172574996948e-01</leafValues></_>
        <_>
          <internalNodes>
            0 -1 29 -8.1271107774227858e-04</internalNodes>
          <leafValues>
            7.3589378595352173e-01 -2.8963753581047058e-01</leafValues></_></weakClassifiers></_></stages>
  <features>
    <_>
      <rects>
        <_>
          0 0 1 24 -1.</_>
        <_>
          0 8 1 8 2.</_></rects>
      <tilted>0</tilted></_>
    <_>
      <rects>
        <_>
          0 0 6 12 -1.</_>
        <_>
          0 0 3 6 2.</_>
        <_>
          3 6 3 6 2.</_></rects>
      <tilted>0</tilted></_>
    <_>
      <rects>
        <_>
          0 1 8 8 -1.</_>
        <_>
          0 1 4 4 2.</_>
        <_>
          4 5 4 4 2.</_></rects>
      <tilted>0</tilted></_>
    <_>
      <rects>
        <_>
          0 4 4 20 -1.</_>
        <_>
          0 4 2 10 2.</_>
        <_>
          2 14 2 10 2.</_></rects>
      <tilted>0</tilted></_>
    <_>
      <rects>
        <_>
          0 6 4 3 -1.</_>
        <_>
          2 6 2 3 2.</_></rects>
      <tilted>0</tilted></_>
    <_>
      <rects>
        <_>
          0 6 6 8 -1.</_>
        <_>
          3 6 3 8 2.</_></rects>
      <tilted>0</tilted></_>
    <_>
      <rects>
        <_>
          1 3 4 4 -1.</_>
        <_>
          1 3 2 2 2.</_>
        <_>
          3 5 2 2 2.</_></rects>
      <tilted>0</tilted></_>
    <_>
      <rects>
        <_>
          1 5 21 6 -1.</_>
        <_>
          8 5 7 6 2.</_></rects>
      <tilted>0</tilted></_>
    <_>
      <rects>
        <_>
          1 6 21 6 -1.</_>
        <_>
          8 6 7 6 2.</_></rects>
      <tilted>0</tilted></_>
    <_>
      <rects>
        <_>
          1 7 4 3 -1.</_>
        <_>
          3 7 2 3 2.</_></rects>
      <tilted>0</tilted></_>
    <_>
      <rects>
        <_>
          2 0 7 8 -1.</_>
        <_>
          2 4 7 4 2.</_></rects>
      <tilted>0</tilted></_>
    <_>
      <rects>
        <_>
          2 9 6 12 -1.</_>
        <_>
          2 9 3 6 2.</_>
        <_>
          5 15 3 6 2.</_></rects>
      <tilted>0</tilted></_>
    <_>
      <rects>
        <_>
          3 2 4 8 -1.</_>
        <_>
          3 2 2 4 2.</_>
        <_>
          5 6 2 4 2.</_></rects>
      <tilted>0</tilted></_>
    <_>
      <rects>
        <_>
          3 7 15 2 -1.</_>
        <_>
          8 7 5 2 2.</_></rects>
      <tilted>0</tilted></_>
    <_>
      <rects>
        <_>
          3 14 2 8 -1.</_>
        <_>
          4 14 1 8 2.</_></rects>
      <tilted>0</tilted></_>
    <_>
      <rects>
        <_>
          4 11 6 4 -1.</_>
        <_>
          4 11 3 2 2.</_>
        <_>
          7 13 3 2 2.</_></rects>
      <tilted>0</tilted></_>
    <_>
      <rects>
        <_>
          4 11 8 4 -1.</_>
        <_>
          4 11 4 2 2.</_>
        <_>
          8 13 4 2 2.</_></rects>
      <tilted>0</tilted></_>
    <_>
      <rects>
        <_>
          5 2 3 4 -1.</_>
        <_>
          5 4 3 2 2.</_></rects>
      <tilted>0</tilted></_>
    <_>
      <rects>
        <_>
          5 4 2 20 -1.</_>
        <_>
          5 4 1 10 2.</_>
        <_>
          6 14 1 10 2.</_></rects>
      <tilted>0</tilted></_>
    <_>
      <rects>
        <_>
          12 3 8 10 -1.</_>
        <_>
          12 3 4 5 2.</_>
        <_>
          16 8 4 5 2.</_></rects>
      <tilted>0</tilted></_>
    <_>
      <rects>
        <_>
          12 7 8 5 -1.</_>
        <_>
          16 7 4 5 2.</_></rects>
      <tilted>0</tilted></_>
    <_>
      <rects>
        <_>
          13 5 8 7 -1.</_>
        <_>
          17 5 4 7 2.</_></rects>
      <tilted>0</tilted></_>
    <_>
      <rects>
        <_>
          13 14 4 4 -1.</_>
        <_>
          13 14 2 2 2.</_>
        <_>
          15 16 2 2 2.</_></rects>
      <tilted>0</tilted></_>
    <_>
      <rects>
        <_>
          14 6 6 6 -1.</_>
        <_>
          14 6 3 3 2.</_>
        <_>
          17 9 3 3 2.</_></rects>
      <tilted>0</tilted></_>
    <_>
      <rects>
        <_>
          17 4 4 2 -1.</_>
        <_>
          17 5 4 1 2.</_></rects>
      <tilted>0</tilted></_>
    <_>
      <rects>
        <_>
          18 8 6 5 -1.</_>
        <_>
          21 8 3 5 2.</_></rects>
      <tilted>0</tilted></_>
    <_>
      <rects>
        <_>
          19 10 4 10 -1.</_>
        <_>
          19 10 2 5 2.</_>
        <_>
          21 15 2 5 2.</_></rects>
      <tilted>0</tilted></_>
    <_>
      <rects>
        <_>
          19 22 2 2 -1.</_>
        <_>
          19 23 2 1 2.</_></rects>
      <tilted>0</tilted></_>
    <_>
      <rects>
        <_>
          20 2 4 10 -1.</_>
        <_>
          20 2 2 5 2.</_>
        <_>
          22 7 2 5 2.</_></rects>
      <tilted>0</tilted></_>
    <_>
      <rects>
        <_>
          20 5 2 10 -1.</_>
        <_>
          20 5 1 5 2.</_>
        <_>
          21 10 1 5 2.</_></rects>
      <tilted>0</tilted></_>
    <_>
      <rects>
        <_>
          21 4 2 12 -1.</_>
        <_>
          22 4 1 12 2.</_></rects>
      <tilted>0</tilted></_>
    <_>
      <rects>
        <_>
          21 21 3 2 -1.</_>
        <_>
          21 22 3 1 2.</_></rects>
      <tilted>0</tilted></_>
    <_>
      <rects>
        <_>
          22 0 2 16 -1.</_>
        <_>
          22 8 2 8 2.</_></rects>
      <tilted>0</tilted></_></features></cascade>
</opencv_storage>
